<?xml version="1.0"?>
<opencv_storage>
<my_svm type_id="opencv-ml-svm">
  <svm_type>C_SVC</svm_type>
  <kernel><type>LINEAR</type></kernel>
  <C>1.0000000000000001e-01</C>
  <term_criteria><epsilon>2.2204460492503131e-16</epsilon>
    <iterations>10000000</iterations></term_criteria>
  <var_all>512</var_all>
  <var_count>512</var_count>
  <class_count>4</class_count>
  <class_labels type_id="opencv-matrix">
    <rows>1</rows>
    <cols>4</cols>
    <dt>i</dt>
    <data>
      0 1 2 3</data></class_labels>
  <sv_total>6</sv_total>
  <support_vectors>
    <_>
      7.51766011e-11 1.34665794e-11 0. 0. 0. 0. 0. 0. 1.03543618e-09
      1.63034031e-08 5.84805926e-10 0. 0. 0. 0. 0. 0. 1.26445432e-09
      2.40228903e-09 1.17249144e-09 0. 0. 0. 0. 0. 0. 0. 5.22945354e-10
      1.38588890e-10 0. 0. 0. 0. 0. 0. 0. 2.27305369e-10 7.57684540e-11
      0. 0. 0. 0. 0. 0. 0. 0. 0. 0. 0. 0. 0. 0. 0. 0. 0. 0. 0. 0. 0. 0.
      0. 0. 0. 0. 2.14194462e-09 1.77241000e-09 0. -3.96386313e-10
      -5.23860122e-10 -2.70661049e-09 -4.36550102e-11 0. 4.70511239e-08
      1.72097339e-06 -3.61668135e-08 -6.62390676e-07 -9.02326292e-07
      -1.49879000e-07 -2.14320917e-08 0. -7.44820650e-09 5.89088188e-07
      1.04539481e-06 1.39655292e-08 -1.54134359e-08 -1.63616800e-08
      -9.16395571e-10 0. 0. 4.67787231e-09 3.40721101e-07 2.55696847e-07
      4.34714416e-08 -4.89713026e-09 0. 0. 0. 0. 1.89421145e-10
      6.34049613e-08 4.05403036e-08 4.10197352e-08 6.36455022e-09 0. 0.
      0. 0. 0. 0. 6.07058537e-09 1.52100377e-08 0. 0. 0. 0. 0. 0. 0.
      3.78842291e-10 7.57684540e-11 0. 0. 0. 0. 0. 0. 0. 0. 0. 0. 0. 0.
      0. 0. 0. 0. 6.23796925e-09 1.07986443e-06 -3.01641222e-07
      -8.87329577e-07 -2.22106041e-06 -3.24659226e-07 -4.33543867e-08 0.
      -4.43076298e-10 1.95857342e-06 1.84377552e-06 -1.24120072e-06
      -2.77306799e-06 -1.72528769e-06 -2.64291600e-07 -5.19893177e-08 0.
      -6.08102297e-08 2.35808875e-06 1.58268733e-06 -4.23809126e-07
      -3.37625579e-07 -1.00027258e-07 -2.32459776e-08 0. 5.07631104e-10
      3.12173484e-07 2.75895718e-06 1.30414060e-06 4.37469510e-08
      -2.00401762e-09 0. 0. 0. 0. 2.05231316e-07 6.06832543e-07
      1.24965055e-07 7.12721047e-08 9.90504123e-10 0. 0. 0. 0.
      1.26810189e-08 3.47574343e-08 2.84312396e-08 2.89964870e-08 0. 0.
      0. 0. 0. 0. 1.25640859e-10 4.14831325e-09 0. 0. 0. 0. 0. 0. 0. 0.
      0. 2.11350315e-09 0. -1.16293475e-10 -9.88674365e-10
      -3.31778072e-09 -1.30965030e-10 0. 2.13925475e-10 6.70659801e-07
      1.72401917e-06 -2.08305352e-07 -8.52061987e-07 -1.48598792e-06
      -1.04801131e-07 -3.01569436e-08 5.28351529e-10 7.25248071e-07
      1.19963524e-05 2.56838052e-06 -1.25852080e-06 -1.29732393e-06
      -4.64828446e-07 -4.08375307e-08 0. 2.80652674e-08 2.31528452e-06
      2.92107075e-06 1.68600525e-06 -1.81012879e-07 -1.42113890e-07 0.
      0. 0. 5.70304159e-09 1.18070068e-06 2.09629570e-06 8.16300428e-07
      6.90457043e-08 0. 0. 0. 0. 0. 2.69878093e-08 7.21043136e-08
      1.10890795e-07 2.79330070e-08 0. 0. 0. 0. 0. 1.62577174e-10
      4.43719239e-09 9.32888895e-08 0. 0. 0. 0. 0. 0. 0. 0. 0. 0. 0. 0.
      0. 0. 0. 0. 0. 3.00438868e-10 1.26204747e-09 0. -4.94066121e-09
      -2.34733193e-08 -8.58069005e-10 0. -1.51557669e-10 5.84254803e-06
      8.84811641e-07 1.88328784e-06 -2.63203049e-07 -1.42332829e-06
      -5.53208565e-07 0. 0. 8.29966268e-07 4.23127494e-06 1.31164297e-05
      4.10990515e-06 -4.68099500e-07 -1.78745793e-07 0. 0. 0.
      4.44003092e-08 1.45622312e-06 5.50336426e-06 2.63449465e-06
      1.00615525e-08 0. 0. 0. 0. 8.53020488e-10 6.52437038e-08
      4.30596003e-07 3.18773459e-07 6.60318733e-08 0. 0. 0. 0. 0.
      1.62577163e-09 1.38967922e-08 1.51768347e-07 0. 0. 0. 0. 0. 0. 0.
      0. 0. 0. 0. 0. 0. 0. 0. 0. 0. 0. 0. 0. 0. 0. 0. 0. -4.71202244e-10
      2.48972384e-07 7.88462557e-08 -4.48232349e-08 -4.79912154e-09
      -4.14594332e-08 -1.42648929e-07 0. 0. 8.33830484e-07
      7.67018992e-06 1.05237696e-05 2.25424924e-06 -5.16117098e-07
      -5.30205227e-07 0. 0. 0. 1.12709711e-06 3.60079503e-06
      9.07038520e-06 5.36522157e-06 -2.71188956e-08 0. 0. 0. 0.
      4.78523283e-08 1.45478410e-07 2.26521297e-06 2.83453801e-06
      1.96079917e-08 0. 0. 0. 0. 0. 1.13804022e-09 7.50670281e-08
      5.95035374e-07 0. 0. 0. 0. 0. 0. 0. 0. 0. 0. 0. 0. 0. 0. 0. 0. 0.
      0. 0. 0. 0. 0. 0. 0. 0. 0. -7.79688369e-10 -1.85108914e-10 0. 0.
      0. 0. -1.57067415e-10 -2.12412798e-09 -3.00754408e-08
      4.68944154e-06 2.73296550e-08 -3.24697282e-08 -1.63526295e-07 0.
      0. 0. 4.96658174e-07 1.28455094e-05 9.35467779e-06 1.20759444e-06
      -1.96472698e-07 0. 0. 0. 0. 1.30570220e-06 4.31089984e-06
      1.83726729e-06 6.08812343e-06 9.72126113e-09 0. 0. 0. 0. 0.
      1.37357647e-09 3.65089164e-07 8.29983776e-07 0. 0. 0. 0. 0. 0. 0.
      0. 0. 0. 0. 0. 0. 0. 0. 0. 0. 0. 0. 0. 0. 0. 0. 0. 0. 0. 0. 0. 0.
      0. 0. 0. 0. 0. -2.37831776e-09 -1.10165654e-08 -4.12280343e-09 0.
      0. 0. 0. 0. -2.37831776e-09 -7.07554264e-08 7.52854760e-07
      -6.26294110e-08 -3.51221985e-08 0. 0. 0. 0. 7.80370435e-09
      1.63785319e-06 7.56712461e-06 5.91533876e-07 4.59979971e-10 0. 0.
      0. 0. 0. 7.20919331e-07 2.93617336e-06 4.26033057e-06</_>
    <_>
      -1.02175626e-07 0. 0. 0. 0. 0. 0. 0. -7.19119271e-08
      1.79255739e-08 1.46931467e-09 0. 0. 0. 0. 0. 0. 9.79543113e-11
      2.05704054e-09 1.17545174e-09 0. 0. 0. 0. 0. 0. 0. 6.85680179e-10
      1.95908623e-10 0. 0. 0. 0. 0. 0. 0. 0. 0. 0. 0. 0. 0. 0. 0. 0. 0.
      0. 0. 0. 0. 0. 0. 0. 0. 0. 0. 0. 0. 0. 0. 0. 0. 0. 0.
      1.72621899e-08 2.84085844e-09 0. 0. 0. 0. 0. 0. -1.21487091e-07
      -1.70851806e-07 -6.68449207e-09 0. 0. 0. 0. 0. 1.61626490e-10
      -3.30971829e-06 -1.36058770e-06 1.03958486e-08 0. 0. 0. 0. 0.
      3.14104243e-10 3.12101172e-08 1.96672133e-07 4.01612681e-08
      1.95908623e-10 0. 0. 0. 0. 0. 2.58599382e-08 4.82914757e-08
      9.30565935e-09 0. 0. 0. 0. 0. 0. 0. 2.15499485e-09 2.93862934e-10
      0. 0. 0. 0. 0. 0. 0. 0. 0. 0. 0. 0. 0. 0. 0. 0. 0. 0. 0. 0. 0. 0.
      0. 0. 0. 2.49009124e-09 2.70708188e-06 -2.50260568e-09 0. 0. 0. 0.
      0. 1.04001989e-11 3.70410385e-06 -7.52923142e-06 -1.10245746e-09
      0. 0. 0. 0. 0. 2.85295556e-08 -7.00707051e-06 -1.26722250e-06
      1.56513191e-09 0. 0. 0. 0. 4.66066352e-11 1.10007523e-08
      2.47831281e-07 1.89742906e-07 2.47824410e-08 3.91817245e-10 0. 0.
      0. 0. 5.28515764e-09 2.45082479e-08 2.12549551e-08 3.31085559e-08
      4.89771557e-10 0. 0. 0. 0. 0. 5.87725868e-10 2.84067490e-08
      4.10428562e-08 0. 0. 0. 0. 0. 0. 3.91817245e-10 7.73839037e-09 0.
      0. 0. 0. 0. 0. 0. 0. 0. 7.43160367e-10 1.02504880e-11 0. 0. 0. 0.
      0. 7.57357788e-11 7.27771479e-08 2.03503419e-06 1.10122922e-09 0.
      0. 0. 0. 5.82582940e-12 3.94701907e-08 1.10306837e-05
      -5.13090527e-06 7.13699277e-09 0. 0. 0. 0. 4.05477740e-09
      3.86513335e-07 -3.52575125e-06 -1.17834226e-07 8.97514355e-11 0.
      0. 0. 0. 8.85526041e-10 1.18830627e-07 9.25172174e-07
      2.03134803e-07 3.42840090e-09 0. 0. 0. 0. 0. 0. 3.11139168e-08
      7.29146024e-08 2.91903834e-08 0. 0. 0. 0. 0. 0. 1.12647456e-08
      2.58011653e-07 0. 0. 0. 0. 0. 0. 0. 0. 0. 0. 0. 0. 0. 0. 0. 0. 0.
      1.37231086e-11 5.08619924e-10 0. 0. 0. 0. 0. 0. 1.09757721e-07
      1.45300032e-06 6.05478408e-06 5.41101441e-10 0. 0. 0. 0.
      4.49306050e-08 1.04029812e-06 1.83862030e-05 -1.41739238e-05
      1.24730809e-10 0. 0. 0. 0. 8.84360851e-09 -2.02940157e-07
      -1.46219345e-05 -3.58880470e-06 2.37520270e-09 0. 0. 0. 0.
      1.22342414e-10 4.81381379e-09 7.43781015e-07 1.92426825e-07
      4.70180694e-09 0. 0. 0. 0. 0. 0. 1.10163612e-08 1.19308353e-07 0.
      0. 0. 0. 0. 0. 0. 0. 0. 0. 0. 0. 0. 0. 0. 0. 0. 0. 0. 0. 0. 0. 0.
      0. 0. 3.61201430e-10 8.94356731e-08 1.14734284e-08 0. 0. 0. 0. 0.
      2.40490241e-08 2.09547875e-06 1.02911335e-05 1.77391794e-05
      6.25362151e-10 0. 0. 0. 0. 1.29589750e-07 8.59351587e-07
      1.46157154e-05 -1.77792685e-06 2.82541546e-08 0. 0. 0. 0.
      6.39676045e-09 -3.70896878e-08 1.22129666e-06 5.60748776e-06
      7.64043584e-09 0. 0. 0. 0. 0. 0. -7.97971964e-08 1.51835607e-07 0.
      0. 0. 0. 0. 0. 0. 0. 0. 0. 0. 0. 0. 0. 0. 0. 0. 0. 0. 0. 0. 0. 0.
      0. 0. 0. 0. 0. 0. 0. 0. 0. 0. 0. 1.52009372e-09 3.34124957e-06
      5.16137639e-08 0. 0. 0. 0. 0. 2.28955099e-09 4.80442577e-06
      5.25010182e-06 7.93405979e-06 0. 0. 0. 0. 0. 1.85121571e-08
      1.59551848e-06 -4.10960502e-06 9.67367851e-06 6.54025722e-09 0. 0.
      0. 0. 0. 1.77415915e-09 -2.85901228e-06 -2.41198609e-06 0. 0. 0.
      0. 0. 0. 0. 0. 0. 0. 0. 0. 0. 0. 0. 0. 0. 0. 0. 0. 0. 0. 0. 0. 0.
      0. 0. 0. 0. 0. 0. 0. 0. 0. 0. 0. 0. 0. 0. 0. 0. 0. 0. 0.
      7.52879625e-09 5.54314195e-09 0. 0. 0. 0. 0. 0. 2.00518315e-07
      4.96464827e-06 4.43979957e-07 9.79543113e-10 0. 0. 0. 0. 0.
      9.64677440e-08 2.35812195e-06 -4.53117082e-06</_>
    <_>
      -7.82992856e-07 -5.04211357e-07 -3.30358674e-08 -1.30712428e-08
      -5.39841558e-08 -2.21518604e-07 -7.21877882e-07 -1.31542936e-06
      -1.92475738e-07 -1.00250463e-06 -4.64038607e-07 -3.22160730e-07
      -3.73525324e-07 -1.27440421e-06 -1.35125947e-06 -2.23493680e-06 0.
      5.24518984e-10 2.49245824e-09 -2.52382328e-08 -2.78000016e-07
      -1.04545666e-06 -1.30542560e-06 -1.43964121e-06 0. 0. 0.
      8.23139390e-10 -5.70615866e-09 -1.18732039e-07 -4.73458357e-07
      -3.56462351e-07 0. 0. 0. 0. 3.72709502e-10 1.24236496e-10
      -1.71327699e-08 -3.27900018e-08 0. 0. 0. 0. 0. 0. 0.
      -3.03561759e-10 0. 0. 0. 0. 0. 0. 0. 0. 0. 0. 0. 0. 0. 0. 0. 0.
      1.31662281e-08 1.38187262e-09 -1.72379735e-10 -7.11924894e-11
      -4.04749012e-10 -2.99981506e-09 -1.45676964e-08 -2.01071956e-07
      -4.92988249e-07 -5.02215335e-06 -2.43224986e-06 -4.05558012e-07
      -2.14850303e-07 -2.28963742e-07 -6.88756813e-07 -2.89479476e-06
      -5.93046368e-09 7.97771861e-07 -8.76210152e-07 -1.04679327e-06
      -1.14320278e-06 -1.66767461e-06 -1.66411621e-06 -2.45336037e-06 0.
      1.68437531e-09 2.40062889e-07 1.88761803e-07 -8.89137581e-08
      -4.06798193e-07 -5.38357540e-07 -5.56498605e-07 0. 0.
      3.10591247e-10 7.08740586e-08 6.20529335e-08 6.52585541e-08
      -6.85358827e-08 -2.57048267e-08 0. 0. 0. 0. 0. 9.84597026e-09
      2.49249794e-08 -8.60091609e-10 0. 0. 0. 0. 0. 0. 6.21182494e-10
      1.24236496e-10 0. 0. 0. 0. 0. 0. 0. 0. 0. 0. 0. 0. 0. 0. 0.
      -1.86705998e-10 -6.90198902e-08 2.12786105e-07 -9.94698155e-08
      -5.60118008e-10 -3.36070793e-09 -6.94931979e-09 -6.31490877e-08
      -2.45480237e-07 -2.33748274e-08 1.89599177e-06 -2.25883764e-06
      -4.01738771e-06 -1.28583144e-06 -1.08580025e-06 -1.44447472e-06
      -6.62263233e-07 0. 1.06150132e-07 3.28485430e-06 2.65095338e-07
      -1.29958892e-06 -9.72670591e-07 -1.77938512e-06 -8.89282660e-07 0.
      8.52860907e-11 1.66368778e-07 1.59548620e-06 5.85910811e-07
      -1.58560852e-07 -5.13324267e-07 -4.64147369e-08 0. 0. 0.
      1.08590385e-07 3.36046725e-07 1.04378223e-07 1.03806933e-07
      1.19484778e-09 0. 0. 0. 0. 7.07159131e-09 1.98439825e-08
      4.47624160e-08 4.54904310e-08 0. 0. 0. 0. 0. 0. 1.86396218e-10
      6.41452846e-09 0. 0. 0. 0. 0. 0. 0. 0. 0. 2.18273444e-09
      1.38501502e-11 0. 0. 0. 0. 0. 1.38589903e-10 3.47712881e-09
      -2.23156508e-06 -9.76083470e-07 -9.92618396e-08 -7.25517566e-08
      -3.39740325e-08 -5.17801091e-08 2.82645046e-10 2.50242294e-07
      7.01659792e-06 3.13230794e-06 -4.87967282e-06 -1.06447078e-06
      -1.56405565e-06 -7.34440789e-07 0. 7.69187469e-09 1.37890299e-06
      4.90983984e-06 7.11371968e-07 -7.76181309e-07 -2.47411936e-06
      -1.92648315e-07 0. 0. 1.62043579e-09 4.80401923e-07 1.07002995e-06
      3.60368517e-07 -2.47375141e-07 -6.41618270e-09 0. 0. 0. 0.
      1.50497961e-08 4.70971280e-08 1.03859563e-07 4.21821831e-08 0. 0.
      0. 0. 0. 9.06614298e-11 6.60125643e-09 1.38954775e-07 0. 0. 0. 0.
      0. 0. 0. 0. 0. 0. 0. 0. 0. 0. 0. 0. 0. -5.96154515e-10
      -7.45341833e-09 -2.17034696e-10 0. 0. -1.86705998e-10 0.
      9.06614298e-11 3.27353200e-06 1.18018158e-06 1.34458753e-06
      -2.32965562e-07 -5.02476958e-08 -5.20936254e-08 -8.24375874e-08 0.
      3.78194301e-07 2.00228851e-06 9.15429155e-06 4.83453232e-06
      -3.15361672e-06 -2.62538902e-06 -2.75798698e-07 0. 0.
      1.64550205e-08 8.45100317e-07 2.88474121e-06 2.38151088e-07
      -1.24149221e-06 -3.60084265e-08 0. 0. 0. 2.23875987e-10
      3.55643870e-08 2.05332867e-07 1.82003063e-07 6.08991746e-09 0. 0.
      0. 0. 0. 9.06614284e-10 1.48124295e-08 1.44902302e-07 0. 0. 0. 0.
      0. 0. 0. 0. 0. 0. 0. 0. 0. 0. 0. 0. 0. 0. 0. 0. 0. 0. 0. 0. 0.
      1.41639489e-07 2.43007520e-07 3.47010976e-09 -5.69716108e-10
      -5.96845406e-10 0. 0. 0. 4.17804699e-07 5.63951789e-06
      8.35575247e-06 2.69940710e-06 -2.26145715e-07 -2.22011010e-07
      -1.49577176e-07 0. 0. 3.64790822e-07 1.29322109e-06 7.52080723e-06
      1.31843785e-06 -4.25941153e-06 -4.09952946e-07 0. 0. 0.
      1.35187443e-08 9.86674848e-08 1.07210860e-06 1.79622782e-06
      -2.15327649e-08 0. 0. 0. 0. 0. 6.34629960e-10 5.06592635e-08
      2.24011231e-07 0. 0. 0. 0. 0. 0. 0. 0. 0. 0. 0. 0. 0. 0. 0. 0. 0.
      0. 0. 0. 0. 0. 0. 0. 0. 0. 0. 0. 0. 0. 0. 0. 0. 0. 8.66606200e-08
      3.60086392e-06 3.90038615e-08 -1.54637225e-09 -2.49589904e-09 0.
      0. 0. 2.74631361e-07 8.42707504e-06 5.06094739e-06 8.93773176e-07
      -3.94279567e-07 -1.56693062e-07 0. 0. 0. 6.90764921e-07
      2.13565841e-06 1.51124527e-06 3.69893110e-06 -3.42915683e-07 0. 0.
      0. 0. 0. 7.68318742e-10 2.19198995e-07 3.73378839e-07 0. 0. 0. 0.
      0. 0. 0. 0. 0. 0. 0. 0. 0. 0. 0. 0. 0. 0. 0. 0. 0. 0. 0. 0. 0. 0.
      0. 0. 0. 0. 0. 0. 0. 0. 0. 0. 0. 0. 0. 0. 0. 0. 0. 1.59306651e-10
      3.94970527e-07 9.96837279e-09 -2.06182960e-09 -1.89905355e-10 0.
      0. 0. 4.35174830e-09 1.11566828e-06 5.05000571e-06 2.42592506e-07
      -7.20182882e-08 0. 0. 0. 0. 0. 6.26584892e-07 1.59316926e-06
      2.16628564e-06</_>
    <_>
      -1.30509272e-06 3.08203380e-06 1.45179592e-06 2.21384653e-07
      1.31951552e-07 0. 0. 0. -3.52304255e-07 -7.49972617e-09
      6.42840448e-09 9.93330396e-09 5.83492152e-08 0. 0. 0. 0. 0. 0. 0.
      0. 0. 0. 0. 0. 0. 0. 0. 0. 0. 0. 0. 0. 0. 0. 0. 0. 0. 0. 0. 0. 0.
      0. 0. 0. 0. 0. 0. 0. 0. 0. 0. 0. 0. 0. 0. 0. 0. 0. 0. 0. 0. 0. 0.
      -2.35556755e-07 1.16942374e-06 3.44176033e-06 1.67836174e-06
      1.60964248e-07 3.14746806e-09 0. 0. -2.18120113e-06
      -1.08413024e-05 1.22539996e-06 1.75587093e-06 1.34401887e-06
      1.09315501e-07 0. 0. 9.68451763e-10 7.66552120e-08 -9.38283506e-07
      2.09412505e-07 7.27812335e-08 1.16899646e-08 2.42112941e-10 0. 0.
      0. -3.99852818e-09 0. 0. 0. 0. 0. 0. 0. 0. 0. 0. 0. 0. 0. 0. 0. 0.
      0. 0. 0. 0. 0. 0. 0. 0. 0. 0. 0. 0. 0. 0. 0. 0. 0. 0. 0. 0. 0. 0.
      0. 0. 0. 0. 0. 0. 0. 0. 5.47205161e-08 1.82506454e-07
      5.08844892e-07 3.02192063e-07 2.78721302e-07 0. 0. 0.
      1.18869934e-06 -8.46288367e-06 1.45367392e-06 4.92223705e-07
      1.83737356e-07 1.93690353e-09 0. 0. 2.90535529e-09 -7.14697626e-06
      -2.52839845e-06 9.33659283e-09 2.61904454e-09 9.68451763e-10 0. 0.
      0. 0. -2.03275903e-08 -1.51055501e-09 0. 0. 0. 0. 0. 0. 0. 0. 0.
      0. 0. 0. 0. 0. 0. 0. 0. 0. 0. 0. 0. 0. 0. 0. 0. 0. 0. 0. 0. 0. 0.
      0. 0. 0. 0. 0. 2.00202493e-11 1.33468332e-11 1.49612289e-09
      2.60050514e-09 3.48887585e-10 0. 0. 0. 2.54897202e-07
      6.11458233e-07 1.87749706e-07 1.70900876e-07 1.68094559e-07
      2.07929318e-09 0. 0. 2.17901630e-09 -2.76180367e-06
      -1.14323939e-05 9.41318135e-08 7.30148884e-08 2.23226992e-09 0. 0.
      0. 1.45267764e-09 -5.24554207e-06 -2.08304914e-06 6.16619367e-10
      6.85715998e-11 0. 0. 0. 0. 0. -4.16838688e-08 -4.79823337e-09 0.
      0. 0. 0. 0. 0. 0. 0. 0. 0. 0. 0. 0. 0. 0. 0. 0. 0. 0. 0. 0. 0. 0.
      0. 0. 0. 0. 0. 0. 0. 0. 0. 0. 0. 0. 7.02127512e-09 2.38138220e-08
      2.76334355e-09 1.68591381e-08 2.03418047e-08 4.34364239e-10 0. 0.
      1.21056465e-09 6.10241727e-07 2.92149451e-07 1.02539595e-07
      6.05561752e-08 5.26503552e-09 0. 0. 0. 2.15238401e-07
      -2.34150343e-06 -1.07834603e-05 8.45930348e-09 2.01416994e-09 0.
      0. 0. 0. -3.37653483e-09 -8.03303828e-06 -2.26370776e-06 0. 0. 0.
      0. 0. 0. 0. -9.01543729e-08 -1.09574927e-08 0. 0. 0. 0. 0. 0. 0.
      0. 0. 0. 0. 0. 0. 0. 0. 0. 0. 0. 0. 0. 0. 0. 0. 0. 0. 0. 0.
      2.42112941e-10 0. 0. 0. 0. 0. 0. 2.42112941e-10 6.87600732e-08
      5.95650569e-08 2.32637571e-08 8.64292193e-09 2.89576141e-10 0. 0.
      0. 6.53704912e-09 1.00351322e-07 5.70795322e-08 2.99874294e-08
      8.03480127e-09 0. 0. 0. 0. -1.77712359e-10 -9.48340494e-06
      -5.94004314e-06 3.77631926e-09 0. 0. 0. 0. 0. 0. -3.63198069e-06
      -1.35721666e-06 0. 0. 0. 0. 0. 0. 0. -8.91828407e-08
      -2.20120278e-08 0. 0. 0. 0. 0. 0. 0. 0. 0. 0. 0. 0. 0. 0. 0. 0. 0.
      0. 0. 0. 0. 0. 0. 0. 0. 0. 2.66324229e-09 3.14746806e-09 0. 0. 0.
      0. 0. 0. 4.84225882e-10 2.97798906e-08 1.23477593e-08
      5.64244385e-09 0. 0. 0. 0. 0. 1.69479053e-09 6.33713437e-09
      2.09918234e-08 1.21689432e-08 0. 0. 0. 0. 0. 0. -1.22751521e-06
      -4.87661111e-07 9.68451763e-10 0. 0. 0. 0. 0. 0. -3.80758564e-07
      -4.67856921e-07 0. 0. 0. 0. 0. 0. 0. 0. 0. 0. 0. 0. 0. 0. 0. 0. 0.
      0. 0. 0. 0. 0. 0. 0. 0. 0. 0. 0. 0. 0. 0. 0. 0. 0. 0. 0.
      4.84225882e-10 0. 0. 0. 0. 0. 0. 7.26338822e-10 5.32648459e-09
      9.96882843e-09 1.05494771e-11 0. 0. 0. 0. 0. 0. 0. 4.84225882e-10
      2.42112930e-09 0. 0. 0. 0. 0. 0. -6.36084796e-10 -1.47110228e-07</_>
    <_>
      -6.51587939e-09 9.79248853e-07 5.97695248e-07 1.36295355e-07
      1.73460979e-08 -3.43472166e-08 -5.88809428e-08 -3.17087961e-06
      -3.44051887e-06 -1.34479642e-05 -1.14154591e-05 -4.15235172e-06
      -1.69827422e-06 -2.12658074e-06 -1.56887854e-05 -3.74717056e-05 0.
      0. -1.96269809e-08 -1.27575376e-07 -1.02060301e-06 -3.47888226e-06
      -2.43619888e-05 -2.31934373e-05 0. 0. 0. 0. -6.37876880e-08
      -4.75954266e-07 -9.48964498e-06 -2.50672838e-06 0. 0. 0. 0. 0. 0.
      -7.11478037e-07 -9.61722094e-07 0. 0. 0. 0. 0. 0. 0. 0. 0. 0. 0.
      0. 0. 0. 0. 0. 0. 0. 0. 0. 0. 0. 0. 0. 0. 4.63252400e-06
      3.72793488e-06 3.25610040e-06 5.89343983e-07 -1.19517685e-09
      -4.90674523e-09 -6.70341137e-07 1.50985159e-06 -9.59698082e-06
      -4.34117392e-05 1.23185628e-05 1.15330722e-05 -1.09570692e-06
      -3.47736818e-06 -1.05577728e-05 -3.76084097e-09 1.02563954e-05
      -3.10345094e-05 -2.52493664e-05 -2.20547026e-05 -1.70834101e-05
      -1.48727777e-05 -9.16447607e-06 0. 0. 0. -5.39741976e-08
      -3.33167986e-06 -5.52602478e-06 -9.19548438e-06 -3.60299259e-06 0.
      0. 0. 0. 0. -2.45337262e-08 -3.28702890e-06 -6.28426676e-07 0. 0.
      0. 0. 0. 0. 0. 0. 0. 0. 0. 0. 0. 0. 0. 0. 0. 0. 0. 0. 0. 0. 0. 0.
      0. 0. 0. 0. 0. 0. 0. -6.53353927e-10 -4.74545061e-08
      6.35938136e-07 1.35542780e-06 6.63317360e-06 1.07783599e-05
      1.60557295e-06 -1.97966244e-07 -8.29106170e-07 -1.52913984e-08
      -2.54037127e-06 -1.11887421e-05 -3.13036071e-05 -1.05677327e-06
      -1.14368038e-06 -4.73961700e-06 -1.58382193e-06 0. -1.64713594e-08
      6.41272482e-06 -4.67777090e-06 -1.28439824e-05 -7.28164196e-06
      -5.73992020e-06 -1.78745825e-06 0. 0. 0. 0. -4.90674523e-09
      -2.22526211e-07 -2.03109175e-06 -3.45120895e-07 0. 0. 0. 0. 0. 0.
      -6.53353927e-10 0. 0. 0. 0. 0. 0. 0. 0. 0. 0. 0. 0. 0. 0. 0. 0. 0.
      0. 0. 0. 0. 0. 0. 0. 0. 0. 1.18723626e-08 9.38051326e-09
      1.69964736e-07 6.97110806e-07 6.76910830e-08 0. 0. 7.84178500e-09
      3.45500825e-06 -7.16193654e-06 -3.54144532e-07 8.00463840e-06
      2.68746612e-06 -8.83027980e-08 -1.94524752e-08 3.92089250e-09
      3.10236970e-07 -2.81219127e-06 -9.22084655e-06 -1.68805000e-05
      -1.27656256e-06 -3.03967863e-06 -4.48246169e-07 0. 0.
      3.53023860e-10 1.65046870e-07 -3.48673780e-06 -3.49934953e-06
      -6.04616116e-06 -1.19303991e-06 0. 0. 0. 0. 0. 3.92089250e-10
      -6.46496858e-07 -1.53735886e-08 0. 0. 0. 0. 0. 0. 0. 0. 0. 0. 0.
      0. 0. 0. 0. 0. 0. 0. 0. 0. 0. 0. 0. 0. 0. 0. 0. 0. 0. 0. 0. 0.
      1.96044625e-09 1.04239113e-07 5.00776807e-08 7.31825907e-08
      1.74398087e-06 7.10713209e-07 1.27751087e-09 0. 2.97987839e-08
      4.31179473e-07 6.59730745e-07 6.81754273e-07 1.34417917e-06
      1.89412992e-06 3.80098868e-08 -5.50100321e-09 0. 0. 3.35002710e-07
      9.40033885e-07 -4.28352678e-06 -1.26784680e-05 -6.34765684e-06
      -5.98601616e-07 0. 0. 0. 0. 6.39440001e-10 -1.76991682e-06
      2.00146633e-06 -1.14396744e-06 0. 0. 0. 0. 0. 0. 1.57227788e-07 0.
      0. 0. 0. 0. 0. 0. 0. 0. 0. 0. 0. 0. 0. 0. 0. 0. 0. 0. 0. 0. 0. 0.
      0. 0. 3.92089250e-10 0. 5.88373100e-11 0. 0. 0. 0. 0.
      1.20371396e-07 1.13372636e-07 5.81472186e-08 2.15848086e-08
      2.74801778e-07 4.70237609e-07 1.28724320e-09 0. 0. 0.
      7.60281296e-07 7.63599473e-07 1.25245583e-06 -4.93662640e-07
      -2.82735808e-08 -4.26638547e-09 0. 0. 0. 1.87810755e-07
      1.12020672e-07 -7.56295458e-06 2.33071361e-07 -1.35567507e-06 0.
      0. 0. 0. 0. 5.09716047e-09 1.92300689e-07 -1.14670208e-07 0. 0. 0.
      0. 0. 0. 0. 0. 0. 0. 0. 0. 0. 0. 0. 0. 0. 0. 0. 0. 0. 0. 0. 0. 0.
      0. 0. 0. 0. 0. 0. 0. 9.05726196e-08 3.48959439e-08 6.47210396e-10
      7.64885044e-10 0. 0. 0. 0. 9.05726196e-08 1.17626779e-08
      5.09763898e-10 6.81920564e-09 1.74735226e-09 2.55592170e-09
      -8.86955509e-10 0. 0. 0. 0. 7.46946771e-09 -8.34918712e-09
      -1.63918241e-06 1.61518346e-06 -6.31993800e-08 0. 0. 0. 0. 0.
      1.56835700e-09 1.88441470e-06 -1.13518206e-06 0. 0. 0. 0. 0. 0. 0.
      0. 0. 0. 0. 0. 0. 0. 0. 0. 0. 0. 0. 0. 0. 0. 0. 0. 0. 0. 0. 0. 0.
      0. 0. 0. 0. 0. 0. 0. 0. 0. 0. 0. 4.37571600e-07 5.48924950e-09 0.
      0. 1.17674620e-10 0. 0. 0. 2.70541591e-07 0. 0. 1.76511930e-10
      1.29442079e-09 3.12811022e-09 -1.06078202e-09 -1.27151498e-10 0.
      0. 0. 0. 0. 0. 2.08885149e-06 4.41862724e-08 0. 0. 0. 0. 0. 0. 0.
      -1.80424813e-08</_>
    <_>
      5.97592759e-07 -1.22301780e-10 -3.39818063e-10 0. -3.66905367e-10
      -8.56112514e-10 -1.47999557e-09 -1.11744278e-07 1.25653273e-07
      -2.16229046e-06 -2.98569404e-07 -1.33234963e-07 -8.54817586e-08
      -1.88585545e-07 -5.47957711e-07 -2.23800271e-06 0. -7.03532255e-09
      -7.02398750e-10 -4.08973877e-09 -1.07847377e-07 -1.26451903e-06
      -2.52717905e-06 -2.53905955e-06 0. 0. 0. 0. -4.14822221e-09
      -5.01727754e-07 -1.82918222e-06 -1.68361589e-06 0. 0. 0. 0. 0.
      -2.13191589e-10 -2.47669561e-07 -3.57873574e-07 0. 0. 0. 0. 0. 0.
      0. -1.33450815e-08 0. 0. 0. 0. 0. 0. 0. 0. 0. 0. 0. 0. 0. 0. 0. 0.
      3.16398371e-07 4.45989856e-10 0. 0. 0. -2.84097773e-10
      -1.10463350e-09 -1.38109016e-07 3.36671451e-06 2.97861607e-06
      -7.63344451e-06 -2.99627118e-06 -1.67697021e-06 -1.43603290e-06
      -2.11378256e-06 -2.12949476e-06 -1.22514239e-08 9.64710216e-06
      -2.21951382e-06 -2.96941471e-06 -2.76912806e-06 -3.99762303e-06
      -6.39063001e-06 -4.39023734e-06 0. 0. -1.39340184e-09
      -9.06307847e-08 -2.25237315e-07 -1.80815096e-06 -1.95308348e-06
      -2.61461173e-06 0. 0. 0. 0. -1.27914956e-09 -7.89214312e-08
      -8.37866594e-07 -3.72107735e-07 0. 0. 0. 0. 0. 0. 0.
      -1.60745568e-08 0. 0. 0. 0. 0. 0. 0. 0. 0. 0. 0. 0. 0. 0. 0. 0. 0.
      0. 0. 0. 0. 0. 0. -9.46992623e-11 -1.48854795e-07 -4.30059117e-06
      -1.19868685e-06 -1.45066593e-07 -4.20144524e-08 -5.68496219e-08
      -1.19774668e-07 -1.35092975e-07 -4.80033044e-08 -4.38926099e-06
      8.44551414e-06 -7.72202657e-06 -3.35787217e-06 -1.60517550e-06
      -1.61232742e-06 -7.33931188e-07 0. -5.74703165e-08 8.93387551e-06
      2.41370321e-06 -2.46743321e-06 -2.08741744e-06 -2.50015955e-06
      -2.96796293e-06 0. 0. 0. -2.55028194e-08 -4.64613464e-07
      -2.83791496e-06 -1.57789384e-06 -6.58389069e-07 0. 0. 0. 0. 0.
      -1.11925580e-09 -2.91900676e-07 -3.19197568e-07 0. 0. 0. 0. 0. 0.
      0. 0. 0. 0. 0. 0. 0. 0. 0. 0. 0. 0. 0. 0. 0. 0. 0. 0. 0.
      -9.82331660e-10 0. 0. 0. 0. 0. 0. 0. -3.81031498e-07
      -3.64798120e-06 -9.18890692e-07 -1.65631477e-07 -6.78323744e-08
      -2.81032655e-08 -5.81810014e-08 0. -2.21901047e-07 1.71564210e-07
      9.08066249e-06 -5.50127334e-06 -2.19579465e-06 -1.71856686e-06
      -1.12278144e-06 0. 0. -1.63721953e-10 4.65229687e-06
      3.92480104e-07 -4.29281135e-06 -2.72681905e-06 -5.73138095e-07 0.
      0. 0. -1.63721953e-10 -1.57826108e-08 -3.66853243e-07
      -7.51291338e-07 -6.77711625e-07 0. 0. 0. 0. 0. 0. 0. 0. 0. 0. 0.
      0. 0. 0. 0. 0. 0. 0. 0. 0. 0. 0. 0. 0. 0. 0. 0. 0. 0. 0. 0. 0. 0.
      -1.78202531e-09 -8.07898282e-09 -4.45506326e-10 0. 0.
      -9.46992623e-11 0. 0. -1.08035279e-08 -1.58694391e-07
      -2.05424911e-07 -3.69558336e-07 -2.48111178e-07 -7.28376008e-08
      -7.52114193e-09 0. 0. -4.74793671e-09 3.41396412e-06
      8.38546111e-06 -2.57084730e-06 -1.64331948e-06 -2.04759345e-07 0.
      0. 0. -1.96466332e-09 3.96580754e-06 1.28853367e-06
      -1.02467243e-06 -2.01936757e-07 0. 0. 0. 0. 0. 3.83040835e-08
      -3.19787391e-10 -3.77882081e-08 0. 0. 0. 0. 0. 0. 0. 0. 0. 0. 0.
      0. 0. 0. 0. 0. 0. 0. 0. 0. 0. 0. 0. 0. 0. 0. 0. 0. 0. 0. 0. 0. 0.
      0. -1.50358381e-09 -2.67303801e-09 -1.19420240e-09 -1.22514243e-09
      0. 0. 0. 0. 0. -4.64324579e-09 -5.83498760e-08 -4.36053966e-07
      -3.17708754e-07 -6.73714418e-09 0. 0. 0. -1.30977562e-09
      3.59490173e-06 4.04969842e-06 -2.69186989e-06 -1.24700932e-07 0.
      0. 0. 0. -8.67726335e-09 3.54095846e-06 2.46539139e-06
      -1.99758219e-08 0. 0. 0. 0. 0. 0. 5.09955385e-08 0. 0. 0. 0. 0. 0.
      0. 0. 0. 0. 0. 0. 0. 0. 0. 0. 0. 0. 0. 0. 0. 0. 0. 0. 0. 0. 0. 0.
      0. 0. 0. 0. 0. 0. 0. 0. -1.28083066e-09 -3.84249210e-09
      -3.19898086e-09 -5.20994181e-09 0. 0. 0. 0. 0. -1.13756123e-07
      -3.16757706e-07 -4.50838400e-07 -9.85881883e-08 0. 0. 0. 0.
      -1.08875099e-07 8.86594023e-07 6.73157899e-07 -2.24084104e-07 0.
      0. 0. 0. 0. -1.63721953e-10 5.76517948e-07 1.12252985e-06 0. 0. 0.
      0. 0. 0. 0. 0. 0. 0. 0. 0. 0. 0. 0. 0. 0. 0. 0. 0. 0. 0. 0. 0. 0.
      0. 0. 0. 0. 0. 0. 0. 0. 0. 0. 0. 0. 0. 0. 0. 0. 0. 0. 0. 0.
      -1.72633696e-09 -4.23231006e-09 -3.89818039e-10 0. 0. 0. 0. 0.
      -2.25936301e-08 -2.25948842e-08 -1.50024249e-07 0. 0. 0. 0. 0.
      -5.40282441e-09 -1.59140086e-07 1.34597030e-06</_></support_vectors>
  <decision_functions>
    <_>
      <sv_count>1</sv_count>
      <rho>1.3393376485668445e+00</rho>
      <alpha>
        1.</alpha>
      <index>
        0</index></_>
    <_>
      <sv_count>1</sv_count>
      <rho>1.1250984704413746e-03</rho>
      <alpha>
        1.</alpha>
      <index>
        1</index></_>
    <_>
      <sv_count>1</sv_count>
      <rho>5.3181444893803687e-01</rho>
      <alpha>
        1.</alpha>
      <index>
        2</index></_>
    <_>
      <sv_count>1</sv_count>
      <rho>-1.6904782336522377e+00</rho>
      <alpha>
        1.</alpha>
      <index>
        3</index></_>
    <_>
      <sv_count>1</sv_count>
      <rho>-1.8756478698831667e+00</rho>
      <alpha>
        1.</alpha>
      <index>
        4</index></_>
    <_>
      <sv_count>1</sv_count>
      <rho>9.3977785849788398e-01</rho>
      <alpha>
        1.</alpha>
      <index>
        5</index></_></decision_functions></my_svm>
</opencv_storage>
