<?xml version="1.0"?>
<opencv_storage>
<my_svm type_id="opencv-ml-svm">
  <svm_type>C_SVC</svm_type>
  <kernel><type>LINEAR</type></kernel>
  <C>1.0000000000000001e-01</C>
  <term_criteria><epsilon>2.2204460492503131e-16</epsilon>
    <iterations>10000000</iterations></term_criteria>
  <var_all>16</var_all>
  <var_count>16</var_count>
  <class_count>4</class_count>
  <class_labels type_id="opencv-matrix">
    <rows>1</rows>
    <cols>4</cols>
    <dt>i</dt>
    <data>
      0 1 2 3</data></class_labels>
  <sv_total>6</sv_total>
  <support_vectors>
    <_>
      -1.76440738e-03 3.38236568e-04 -1.63781960e-02 -6.99999988e-01
      1.96611532e-03 1.59272784e-03 -1.97434871e-04 2.73311228e-01
      -1.56050932e-03 -7.14076858e-04 -2.52489117e-03 -4.92429167e-01
      -2.25997367e-03 -1.74548198e-03 -2.90619908e-04 -1.00000001e-01</_>
    <_>
      2.37079826e-03 -2.68071366e-04 -8.99142586e-03 -5.36628604e-01
      3.23914544e-04 7.72284460e-04 8.09717365e-03 1.00000001e-01
      -5.61850239e-03 -5.54636819e-03 -5.16461255e-03 -4.00000006e-01
      -8.12230073e-03 -5.90169849e-03 -9.34480596e-03 -1.86698258e-01</_>
    <_>
      1.25044631e-03 8.98481056e-04 -1.80600844e-02 -7.83738971e-01
      3.17813340e-03 3.33570264e-04 -5.76848071e-03 -2.00000003e-01
      4.74735582e-03 -1.90946274e-03 7.58327870e-03 -3.34505737e-02
      -3.62746860e-03 -2.61888304e-03 -8.88431165e-03 -7.48019218e-01</_>
    <_>
      3.96598829e-03 5.20755944e-04 2.01995596e-02 -4.03641462e-02
      -3.38530587e-03 -1.29802711e-03 1.67862431e-03 -8.12468007e-02
      -2.61466508e-03 -1.96981267e-03 1.71150232e-03 -2.08120216e-02
      4.06711362e-04 -3.72111169e-03 -1.44290738e-02 -1.00000001e-01</_>
    <_>
      4.63388744e-04 -4.09413973e-04 5.39228320e-03 -2.21465856e-01
      -2.75093270e-03 5.11325605e-04 -3.00930440e-03 -3.38043123e-01
      2.43016076e-03 3.60687809e-05 1.05387373e-02 4.37898368e-01
      6.13773533e-04 -3.52722011e-03 -3.79672111e-03 -5.30829012e-01</_>
    <_>
      -1.83268893e-03 -4.30002948e-03 -2.88394261e-02 -3.81916720e-13
      -1.59965223e-03 -1.98857021e-03 -8.56827758e-03 -3.00000012e-01
      8.15487280e-03 9.24446969e-04 1.09583661e-02 3.43132228e-01
      2.13472592e-03 3.61600495e-03 9.83746140e-04 -1.81456730e-01</_></support_vectors>
  <decision_functions>
    <_>
      <sv_count>1</sv_count>
      <rho>-6.4870392485139874e+01</rho>
      <alpha>
        1.</alpha>
      <index>
        0</index></_>
    <_>
      <sv_count>1</sv_count>
      <rho>-6.7529201313225684e+01</rho>
      <alpha>
        1.</alpha>
      <index>
        1</index></_>
    <_>
      <sv_count>1</sv_count>
      <rho>-1.1014716304529679e+02</rho>
      <alpha>
        1.</alpha>
      <index>
        2</index></_>
    <_>
      <sv_count>1</sv_count>
      <rho>-1.5432320538766147e+01</rho>
      <alpha>
        1.</alpha>
      <index>
        3</index></_>
    <_>
      <sv_count>1</sv_count>
      <rho>-3.8879875501555432e+01</rho>
      <alpha>
        1.</alpha>
      <index>
        4</index></_>
    <_>
      <sv_count>1</sv_count>
      <rho>-1.0338011781638050e+01</rho>
      <alpha>
        1.</alpha>
      <index>
        5</index></_></decision_functions></my_svm>
</opencv_storage>
